digraph Tree {
node [shape=box, style="filled, rounded", color="black", fontname=helvetica] ;
edge [fontname=helvetica] ;
0 [label="petal length (cm) <= 2.35\ngini = 0.665\nsamples = 120\nvalue = [39, 37, 44]\nclass = virginica", fillcolor="#f7f3fd"] ;
1 [label="gini = 0.0\nsamples = 39\nvalue = [39, 0, 0]\nclass = setosa", fillcolor="#e58139"] ;
0 -> 1 [labeldistance=2.5, labelangle=45, headlabel="True"] ;
2 [label="petal width (cm) <= 1.75\ngini = 0.496\nsamples = 81\nvalue = [0, 37, 44]\nclass = virginica", fillcolor="#ebe0fb"] ;
0 -> 2 [labeldistance=2.5, labelangle=-45, headlabel="False"] ;
3 [label="gini = 0.18\nsamples = 40\nvalue = [0, 36, 4]\nclass = versicolor", fillcolor="#4fe88f"] ;
2 -> 3 ;
4 [label="gini = 0.048\nsamples = 41\nvalue = [0, 1, 40]\nclass = virginica", fillcolor="#843ee6"] ;
2 -> 4 ;
}